digraph Tree {
node [shape=box] ;
0 [label="total day charge <= 44.975\ngini = 0.239\nsamples = 2500\nvalue = [2153, 347]"] ;
1 [label="number customer service calls <= 3.5\ngini = 0.197\nsamples = 2344\nvalue = [2084, 260]"] ;
0 -> 1 [labeldistance=2.5, labelangle=45, headlabel="True"] ;
2 [label="international plan <= 0.5\ngini = 0.141\nsamples = 2154\nvalue = [1989, 165]"] ;
1 -> 2 ;
3 [label="total day charge <= 39.44\ngini = 0.087\nsamples = 1952\nvalue = [1863, 89]"] ;
2 -> 3 ;
4 [label="total eve charge <= 27.985\ngini = 0.059\nsamples = 1746\nvalue = [1693, 53]"] ;
3 -> 4 ;
5 [label="total day charge <= 35.795\ngini = 0.055\nsamples = 1736\nvalue = [1687, 49]"] ;
4 -> 5 ;
6 [label="number vmail messages <= 43.5\ngini = 0.043\nsamples = 1492\nvalue = [1459, 33]"] ;
5 -> 6 ;
7 [label="total night charge <= 15.855\ngini = 0.041\nsamples = 1485\nvalue = [1454, 31]"] ;
6 -> 7 ;
8 [label="account length <= 224.5\ngini = 0.04\nsamples = 1482\nvalue = [1452, 30]"] ;
7 -> 8 ;
9 [label="total night calls <= 104.5\ngini = 0.038\nsamples = 1478\nvalue = [1449, 29]"] ;
8 -> 9 ;
10 [label="total intl calls <= 14.5\ngini = 0.023\nsamples = 863\nvalue = [853, 10]"] ;
9 -> 10 ;
11 [label="total day calls <= 128.5\ngini = 0.021\nsamples = 860\nvalue = [851, 9]"] ;
10 -> 11 ;
12 [label="total night minutes <= 255.75\ngini = 0.015\nsamples = 795\nvalue = [789, 6]"] ;
11 -> 12 ;
13 [label="total day calls <= 115.5\ngini = 0.009\nsamples = 675\nvalue = [672, 3]"] ;
12 -> 13 ;
14 [label="number vmail messages <= 26.5\ngini = 0.004\nsamples = 565\nvalue = [564, 1]"] ;
13 -> 14 ;
15 [label="gini = 0.0\nsamples = 464\nvalue = [464, 0]"] ;
14 -> 15 ;
16 [label="number vmail messages <= 27.5\ngini = 0.02\nsamples = 101\nvalue = [100, 1]"] ;
14 -> 16 ;
17 [label="account length <= 100.0\ngini = 0.375\nsamples = 4\nvalue = [3, 1]"] ;
16 -> 17 ;
18 [label="gini = 0.0\nsamples = 3\nvalue = [3, 0]"] ;
17 -> 18 ;
19 [label="gini = 0.0\nsamples = 1\nvalue = [0, 1]"] ;
17 -> 19 ;
20 [label="gini = 0.0\nsamples = 97\nvalue = [97, 0]"] ;
16 -> 20 ;
21 [label="total day calls <= 116.5\ngini = 0.036\nsamples = 110\nvalue = [108, 2]"] ;
13 -> 21 ;
22 [label="area code <= 462.5\ngini = 0.142\nsamples = 13\nvalue = [12, 1]"] ;
21 -> 22 ;
23 [label="gini = 0.0\nsamples = 12\nvalue = [12, 0]"] ;
22 -> 23 ;
24 [label="gini = 0.0\nsamples = 1\nvalue = [0, 1]"] ;
22 -> 24 ;
25 [label="total night minutes <= 145.5\ngini = 0.02\nsamples = 97\nvalue = [96, 1]"] ;
21 -> 25 ;
26 [label="total night charge <= 6.42\ngini = 0.124\nsamples = 15\nvalue = [14, 1]"] ;
25 -> 26 ;
27 [label="gini = 0.0\nsamples = 14\nvalue = [14, 0]"] ;
26 -> 27 ;
28 [label="gini = 0.0\nsamples = 1\nvalue = [0, 1]"] ;
26 -> 28 ;
29 [label="gini = 0.0\nsamples = 82\nvalue = [82, 0]"] ;
25 -> 29 ;
30 [label="total night minutes <= 255.85\ngini = 0.049\nsamples = 120\nvalue = [117, 3]"] ;
12 -> 30 ;
31 [label="total day minutes <= 149.5\ngini = 0.5\nsamples = 2\nvalue = [1, 1]"] ;
30 -> 31 ;
32 [label="gini = 0.0\nsamples = 1\nvalue = [1, 0]"] ;
31 -> 32 ;
33 [label="gini = 0.0\nsamples = 1\nvalue = [0, 1]"] ;
31 -> 33 ;
34 [label="total eve calls <= 134.5\ngini = 0.033\nsamples = 118\nvalue = [116, 2]"] ;
30 -> 34 ;
35 [label="total intl calls <= 1.5\ngini = 0.017\nsamples = 114\nvalue = [113, 1]"] ;
34 -> 35 ;
36 [label="account length <= 76.0\ngini = 0.278\nsamples = 6\nvalue = [5, 1]"] ;
35 -> 36 ;
37 [label="gini = 0.0\nsamples = 1\nvalue = [0, 1]"] ;
36 -> 37 ;
38 [label="gini = 0.0\nsamples = 5\nvalue = [5, 0]"] ;
36 -> 38 ;
39 [label="gini = 0.0\nsamples = 108\nvalue = [108, 0]"] ;
35 -> 39 ;
40 [label="number vmail messages <= 24.0\ngini = 0.375\nsamples = 4\nvalue = [3, 1]"] ;
34 -> 40 ;
41 [label="gini = 0.0\nsamples = 3\nvalue = [3, 0]"] ;
40 -> 41 ;
42 [label="gini = 0.0\nsamples = 1\nvalue = [0, 1]"] ;
40 -> 42 ;
43 [label="total eve charge <= 6.635\ngini = 0.088\nsamples = 65\nvalue = [62, 3]"] ;
11 -> 43 ;
44 [label="gini = 0.0\nsamples = 1\nvalue = [0, 1]"] ;
43 -> 44 ;
45 [label="area code <= 411.5\ngini = 0.061\nsamples = 64\nvalue = [62, 2]"] ;
43 -> 45 ;
46 [label="total night calls <= 93.5\ngini = 0.245\nsamples = 14\nvalue = [12, 2]"] ;
45 -> 46 ;
47 [label="gini = 0.0\nsamples = 8\nvalue = [8, 0]"] ;
46 -> 47 ;
48 [label="total intl charge <= 3.15\ngini = 0.444\nsamples = 6\nvalue = [4, 2]"] ;
46 -> 48 ;
49 [label="gini = 0.0\nsamples = 3\nvalue = [3, 0]"] ;
48 -> 49 ;
50 [label="voice mail plan <= 0.5\ngini = 0.444\nsamples = 3\nvalue = [1, 2]"] ;
48 -> 50 ;
51 [label="gini = 0.0\nsamples = 2\nvalue = [0, 2]"] ;
50 -> 51 ;
52 [label="gini = 0.0\nsamples = 1\nvalue = [1, 0]"] ;
50 -> 52 ;
53 [label="gini = 0.0\nsamples = 50\nvalue = [50, 0]"] ;
45 -> 53 ;
54 [label="total day minutes <= 164.9\ngini = 0.444\nsamples = 3\nvalue = [2, 1]"] ;
10 -> 54 ;
55 [label="gini = 0.0\nsamples = 1\nvalue = [0, 1]"] ;
54 -> 55 ;
56 [label="gini = 0.0\nsamples = 2\nvalue = [2, 0]"] ;
54 -> 56 ;
57 [label="account length <= 152.5\ngini = 0.06\nsamples = 615\nvalue = [596, 19]"] ;
9 -> 57 ;
58 [label="total night charge <= 11.565\ngini = 0.049\nsamples = 556\nvalue = [542, 14]"] ;
57 -> 58 ;
59 [label="total day charge <= 13.975\ngini = 0.036\nsamples = 489\nvalue = [480, 9]"] ;
58 -> 59 ;
60 [label="total day charge <= 13.895\ngini = 0.147\nsamples = 25\nvalue = [23, 2]"] ;
59 -> 60 ;
61 [label="account length <= 48.0\ngini = 0.08\nsamples = 24\nvalue = [23, 1]"] ;
60 -> 61 ;
62 [label="total day charge <= 11.645\ngini = 0.5\nsamples = 2\nvalue = [1, 1]"] ;
61 -> 62 ;
63 [label="gini = 0.0\nsamples = 1\nvalue = [1, 0]"] ;
62 -> 63 ;
64 [label="gini = 0.0\nsamples = 1\nvalue = [0, 1]"] ;
62 -> 64 ;
65 [label="gini = 0.0\nsamples = 22\nvalue = [22, 0]"] ;
61 -> 65 ;
66 [label="gini = 0.0\nsamples = 1\nvalue = [0, 1]"] ;
60 -> 66 ;
67 [label="total night minutes <= 178.2\ngini = 0.03\nsamples = 464\nvalue = [457, 7]"] ;
59 -> 67 ;
68 [label="total night minutes <= 178.05\ngini = 0.065\nsamples = 178\nvalue = [172, 6]"] ;
67 -> 68 ;
69 [label="number vmail messages <= 16.5\ngini = 0.055\nsamples = 176\nvalue = [171, 5]"] ;
68 -> 69 ;
70 [label="total eve calls <= 130.0\ngini = 0.016\nsamples = 127\nvalue = [126, 1]"] ;
69 -> 70 ;
71 [label="gini = 0.0\nsamples = 120\nvalue = [120, 0]"] ;
70 -> 71 ;
72 [label="total day calls <= 90.5\ngini = 0.245\nsamples = 7\nvalue = [6, 1]"] ;
70 -> 72 ;
73 [label="gini = 0.0\nsamples = 1\nvalue = [0, 1]"] ;
72 -> 73 ;
74 [label="gini = 0.0\nsamples = 6\nvalue = [6, 0]"] ;
72 -> 74 ;
75 [label="total day calls <= 129.0\ngini = 0.15\nsamples = 49\nvalue = [45, 4]"] ;
69 -> 75 ;
76 [label="number vmail messages <= 18.5\ngini = 0.117\nsamples = 48\nvalue = [45, 3]"] ;
75 -> 76 ;
77 [label="gini = 0.0\nsamples = 1\nvalue = [0, 1]"] ;
76 -> 77 ;
78 [label="account length <= 121.0\ngini = 0.081\nsamples = 47\nvalue = [45, 2]"] ;
76 -> 78 ;
79 [label="gini = 0.0\nsamples = 38\nvalue = [38, 0]"] ;
78 -> 79 ;
80 [label="area code <= 462.5\ngini = 0.346\nsamples = 9\nvalue = [7, 2]"] ;
78 -> 80 ;
81 [label="account length <= 122.5\ngini = 0.219\nsamples = 8\nvalue = [7, 1]"] ;
80 -> 81 ;
82 [label="gini = 0.0\nsamples = 1\nvalue = [0, 1]"] ;
81 -> 82 ;
83 [label="gini = 0.0\nsamples = 7\nvalue = [7, 0]"] ;
81 -> 83 ;
84 [label="gini = 0.0\nsamples = 1\nvalue = [0, 1]"] ;
80 -> 84 ;
85 [label="gini = 0.0\nsamples = 1\nvalue = [0, 1]"] ;
75 -> 85 ;
86 [label="total day calls <= 108.0\ngini = 0.5\nsamples = 2\nvalue = [1, 1]"] ;
68 -> 86 ;
87 [label="gini = 0.0\nsamples = 1\nvalue = [0, 1]"] ;
86 -> 87 ;
88 [label="gini = 0.0\nsamples = 1\nvalue = [1, 0]"] ;
86 -> 88 ;
89 [label="total eve calls <= 69.0\ngini = 0.007\nsamples = 286\nvalue = [285, 1]"] ;
67 -> 89 ;
90 [label="total eve calls <= 67.0\ngini = 0.117\nsamples = 16\nvalue = [15, 1]"] ;
89 -> 90 ;
91 [label="gini = 0.0\nsamples = 14\nvalue = [14, 0]"] ;
90 -> 91 ;
92 [label="total eve charge <= 16.02\ngini = 0.5\nsamples = 2\nvalue = [1, 1]"] ;
90 -> 92 ;
93 [label="gini = 0.0\nsamples = 1\nvalue = [1, 0]"] ;
92 -> 93 ;
94 [label="gini = 0.0\nsamples = 1\nvalue = [0, 1]"] ;
92 -> 94 ;
95 [label="gini = 0.0\nsamples = 270\nvalue = [270, 0]"] ;
89 -> 95 ;
96 [label="total night charge <= 11.625\ngini = 0.138\nsamples = 67\nvalue = [62, 5]"] ;
58 -> 96 ;
97 [label="gini = 0.0\nsamples = 1\nvalue = [0, 1]"] ;
96 -> 97 ;
98 [label="account length <= 49.5\ngini = 0.114\nsamples = 66\nvalue = [62, 4]"] ;
96 -> 98 ;
99 [label="total day calls <= 85.5\ngini = 0.48\nsamples = 5\nvalue = [3, 2]"] ;
98 -> 99 ;
100 [label="gini = 0.0\nsamples = 2\nvalue = [0, 2]"] ;
99 -> 100 ;
101 [label="gini = 0.0\nsamples = 3\nvalue = [3, 0]"] ;
99 -> 101 ;
102 [label="total night calls <= 124.5\ngini = 0.063\nsamples = 61\nvalue = [59, 2]"] ;
98 -> 102 ;
103 [label="gini = 0.0\nsamples = 45\nvalue = [45, 0]"] ;
102 -> 103 ;
104 [label="total night calls <= 129.0\ngini = 0.219\nsamples = 16\nvalue = [14, 2]"] ;
102 -> 104 ;
105 [label="total intl charge <= 2.985\ngini = 0.48\nsamples = 5\nvalue = [3, 2]"] ;
104 -> 105 ;
106 [label="total night charge <= 12.195\ngini = 0.444\nsamples = 3\nvalue = [1, 2]"] ;
105 -> 106 ;
107 [label="gini = 0.0\nsamples = 1\nvalue = [1, 0]"] ;
106 -> 107 ;
108 [label="gini = 0.0\nsamples = 2\nvalue = [0, 2]"] ;
106 -> 108 ;
109 [label="gini = 0.0\nsamples = 2\nvalue = [2, 0]"] ;
105 -> 109 ;
110 [label="gini = 0.0\nsamples = 11\nvalue = [11, 0]"] ;
104 -> 110 ;
111 [label="total eve calls <= 128.5\ngini = 0.155\nsamples = 59\nvalue = [54, 5]"] ;
57 -> 111 ;
112 [label="account length <= 155.5\ngini = 0.105\nsamples = 54\nvalue = [51, 3]"] ;
111 -> 112 ;
113 [label="total day minutes <= 161.25\ngini = 0.298\nsamples = 11\nvalue = [9, 2]"] ;
112 -> 113 ;
114 [label="gini = 0.0\nsamples = 1\nvalue = [0, 1]"] ;
113 -> 114 ;
115 [label="number customer service calls <= 0.5\ngini = 0.18\nsamples = 10\nvalue = [9, 1]"] ;
113 -> 115 ;
116 [label="gini = 0.0\nsamples = 1\nvalue = [0, 1]"] ;
115 -> 116 ;
117 [label="gini = 0.0\nsamples = 9\nvalue = [9, 0]"] ;
115 -> 117 ;
118 [label="total day charge <= 16.51\ngini = 0.045\nsamples = 43\nvalue = [42, 1]"] ;
112 -> 118 ;
119 [label="total day minutes <= 91.65\ngini = 0.375\nsamples = 4\nvalue = [3, 1]"] ;
118 -> 119 ;
120 [label="gini = 0.0\nsamples = 3\nvalue = [3, 0]"] ;
119 -> 120 ;
121 [label="gini = 0.0\nsamples = 1\nvalue = [0, 1]"] ;
119 -> 121 ;
122 [label="gini = 0.0\nsamples = 39\nvalue = [39, 0]"] ;
118 -> 122 ;
123 [label="total eve charge <= 16.915\ngini = 0.48\nsamples = 5\nvalue = [3, 2]"] ;
111 -> 123 ;
124 [label="gini = 0.0\nsamples = 3\nvalue = [3, 0]"] ;
123 -> 124 ;
125 [label="gini = 0.0\nsamples = 2\nvalue = [0, 2]"] ;
123 -> 125 ;
126 [label="total eve charge <= 22.105\ngini = 0.375\nsamples = 4\nvalue = [3, 1]"] ;
8 -> 126 ;
127 [label="gini = 0.0\nsamples = 3\nvalue = [3, 0]"] ;
126 -> 127 ;
128 [label="gini = 0.0\nsamples = 1\nvalue = [0, 1]"] ;
126 -> 128 ;
129 [label="total day minutes <= 181.0\ngini = 0.444\nsamples = 3\nvalue = [2, 1]"] ;
7 -> 129 ;
130 [label="gini = 0.0\nsamples = 2\nvalue = [2, 0]"] ;
129 -> 130 ;
131 [label="gini = 0.0\nsamples = 1\nvalue = [0, 1]"] ;
129 -> 131 ;
132 [label="account length <= 131.5\ngini = 0.408\nsamples = 7\nvalue = [5, 2]"] ;
6 -> 132 ;
133 [label="gini = 0.0\nsamples = 5\nvalue = [5, 0]"] ;
132 -> 133 ;
134 [label="gini = 0.0\nsamples = 2\nvalue = [0, 2]"] ;
132 -> 134 ;
135 [label="total eve charge <= 23.375\ngini = 0.123\nsamples = 244\nvalue = [228, 16]"] ;
5 -> 135 ;
136 [label="total day minutes <= 210.65\ngini = 0.09\nsamples = 232\nvalue = [221, 11]"] ;
135 -> 136 ;
137 [label="total night calls <= 83.5\ngini = 0.5\nsamples = 2\nvalue = [1, 1]"] ;
136 -> 137 ;
138 [label="gini = 0.0\nsamples = 1\nvalue = [1, 0]"] ;
137 -> 138 ;
139 [label="gini = 0.0\nsamples = 1\nvalue = [0, 1]"] ;
137 -> 139 ;
140 [label="total intl charge <= 2.93\ngini = 0.083\nsamples = 230\nvalue = [220, 10]"] ;
136 -> 140 ;
141 [label="total night calls <= 105.5\ngini = 0.127\nsamples = 147\nvalue = [137, 10]"] ;
140 -> 141 ;
142 [label="number vmail messages <= 40.0\ngini = 0.189\nsamples = 85\nvalue = [76, 9]"] ;
141 -> 142 ;
143 [label="total night calls <= 83.5\ngini = 0.172\nsamples = 84\nvalue = [76, 8]"] ;
142 -> 143 ;
144 [label="gini = 0.0\nsamples = 27\nvalue = [27, 0]"] ;
143 -> 144 ;
145 [label="total night calls <= 84.5\ngini = 0.241\nsamples = 57\nvalue = [49, 8]"] ;
143 -> 145 ;
146 [label="gini = 0.0\nsamples = 1\nvalue = [0, 1]"] ;
145 -> 146 ;
147 [label="total intl minutes <= 10.25\ngini = 0.219\nsamples = 56\nvalue = [49, 7]"] ;
145 -> 147 ;
148 [label="total eve charge <= 22.01\ngini = 0.136\nsamples = 41\nvalue = [38, 3]"] ;
147 -> 148 ;
149 [label="total day calls <= 130.5\ngini = 0.097\nsamples = 39\nvalue = [37, 2]"] ;
148 -> 149 ;
150 [label="account length <= 44.0\ngini = 0.053\nsamples = 37\nvalue = [36, 1]"] ;
149 -> 150 ;
151 [label="account length <= 35.0\ngini = 0.444\nsamples = 3\nvalue = [2, 1]"] ;
150 -> 151 ;
152 [label="gini = 0.0\nsamples = 2\nvalue = [2, 0]"] ;
151 -> 152 ;
153 [label="gini = 0.0\nsamples = 1\nvalue = [0, 1]"] ;
151 -> 153 ;
154 [label="gini = 0.0\nsamples = 34\nvalue = [34, 0]"] ;
150 -> 154 ;
155 [label="total eve charge <= 16.835\ngini = 0.5\nsamples = 2\nvalue = [1, 1]"] ;
149 -> 155 ;
156 [label="gini = 0.0\nsamples = 1\nvalue = [1, 0]"] ;
155 -> 156 ;
157 [label="gini = 0.0\nsamples = 1\nvalue = [0, 1]"] ;
155 -> 157 ;
158 [label="total night calls <= 98.0\ngini = 0.5\nsamples = 2\nvalue = [1, 1]"] ;
148 -> 158 ;
159 [label="gini = 0.0\nsamples = 1\nvalue = [0, 1]"] ;
158 -> 159 ;
160 [label="gini = 0.0\nsamples = 1\nvalue = [1, 0]"] ;
158 -> 160 ;
161 [label="total day calls <= 103.5\ngini = 0.391\nsamples = 15\nvalue = [11, 4]"] ;
147 -> 161 ;
162 [label="total intl minutes <= 10.65\ngini = 0.444\nsamples = 6\nvalue = [2, 4]"] ;
161 -> 162 ;
163 [label="gini = 0.0\nsamples = 3\nvalue = [0, 3]"] ;
162 -> 163 ;
164 [label="total day minutes <= 224.6\ngini = 0.444\nsamples = 3\nvalue = [2, 1]"] ;
162 -> 164 ;
165 [label="gini = 0.0\nsamples = 2\nvalue = [2, 0]"] ;
164 -> 165 ;
166 [label="gini = 0.0\nsamples = 1\nvalue = [0, 1]"] ;
164 -> 166 ;
167 [label="gini = 0.0\nsamples = 9\nvalue = [9, 0]"] ;
161 -> 167 ;
168 [label="gini = 0.0\nsamples = 1\nvalue = [0, 1]"] ;
142 -> 168 ;
169 [label="total night minutes <= 262.0\ngini = 0.032\nsamples = 62\nvalue = [61, 1]"] ;
141 -> 169 ;
170 [label="gini = 0.0\nsamples = 57\nvalue = [57, 0]"] ;
169 -> 170 ;
171 [label="total night charge <= 11.94\ngini = 0.32\nsamples = 5\nvalue = [4, 1]"] ;
169 -> 171 ;
172 [label="gini = 0.0\nsamples = 1\nvalue = [0, 1]"] ;
171 -> 172 ;
173 [label="gini = 0.0\nsamples = 4\nvalue = [4, 0]"] ;
171 -> 173 ;
174 [label="gini = 0.0\nsamples = 83\nvalue = [83, 0]"] ;
140 -> 174 ;
175 [label="total intl charge <= 2.66\ngini = 0.486\nsamples = 12\nvalue = [7, 5]"] ;
135 -> 175 ;
176 [label="gini = 0.0\nsamples = 5\nvalue = [5, 0]"] ;
175 -> 176 ;
177 [label="area code <= 411.5\ngini = 0.408\nsamples = 7\nvalue = [2, 5]"] ;
175 -> 177 ;
178 [label="total intl minutes <= 10.5\ngini = 0.444\nsamples = 3\nvalue = [2, 1]"] ;
177 -> 178 ;
179 [label="gini = 0.0\nsamples = 1\nvalue = [0, 1]"] ;
178 -> 179 ;
180 [label="gini = 0.0\nsamples = 2\nvalue = [2, 0]"] ;
178 -> 180 ;
181 [label="gini = 0.0\nsamples = 4\nvalue = [0, 4]"] ;
177 -> 181 ;
182 [label="total day calls <= 105.0\ngini = 0.48\nsamples = 10\nvalue = [6, 4]"] ;
4 -> 182 ;
183 [label="gini = 0.0\nsamples = 5\nvalue = [5, 0]"] ;
182 -> 183 ;
184 [label="total intl minutes <= 13.85\ngini = 0.32\nsamples = 5\nvalue = [1, 4]"] ;
182 -> 184 ;
185 [label="gini = 0.0\nsamples = 4\nvalue = [0, 4]"] ;
184 -> 185 ;
186 [label="gini = 0.0\nsamples = 1\nvalue = [1, 0]"] ;
184 -> 186 ;
187 [label="total eve minutes <= 242.35\ngini = 0.288\nsamples = 206\nvalue = [170, 36]"] ;
3 -> 187 ;
188 [label="total night charge <= 11.94\ngini = 0.116\nsamples = 162\nvalue = [152, 10]"] ;
187 -> 188 ;
189 [label="total eve calls <= 77.5\ngini = 0.067\nsamples = 144\nvalue = [139, 5]"] ;
188 -> 189 ;
190 [label="account length <= 79.5\ngini = 0.337\nsamples = 14\nvalue = [11, 3]"] ;
189 -> 190 ;
191 [label="total night calls <= 119.5\ngini = 0.375\nsamples = 4\nvalue = [1, 3]"] ;
190 -> 191 ;
192 [label="gini = 0.0\nsamples = 3\nvalue = [0, 3]"] ;
191 -> 192 ;
193 [label="gini = 0.0\nsamples = 1\nvalue = [1, 0]"] ;
191 -> 193 ;
194 [label="gini = 0.0\nsamples = 10\nvalue = [10, 0]"] ;
190 -> 194 ;
195 [label="total night calls <= 70.5\ngini = 0.03\nsamples = 130\nvalue = [128, 2]"] ;
189 -> 195 ;
196 [label="total eve calls <= 116.0\ngini = 0.245\nsamples = 7\nvalue = [6, 1]"] ;
195 -> 196 ;
197 [label="gini = 0.0\nsamples = 6\nvalue = [6, 0]"] ;
196 -> 197 ;
198 [label="gini = 0.0\nsamples = 1\nvalue = [0, 1]"] ;
196 -> 198 ;
199 [label="total day charge <= 40.23\ngini = 0.016\nsamples = 123\nvalue = [122, 1]"] ;
195 -> 199 ;
200 [label="total day minutes <= 236.55\ngini = 0.091\nsamples = 21\nvalue = [20, 1]"] ;
199 -> 200 ;
201 [label="gini = 0.0\nsamples = 20\nvalue = [20, 0]"] ;
200 -> 201 ;
202 [label="gini = 0.0\nsamples = 1\nvalue = [0, 1]"] ;
200 -> 202 ;
203 [label="gini = 0.0\nsamples = 102\nvalue = [102, 0]"] ;
199 -> 203 ;
204 [label="total eve minutes <= 196.15\ngini = 0.401\nsamples = 18\nvalue = [13, 5]"] ;
188 -> 204 ;
205 [label="total day charge <= 43.955\ngini = 0.142\nsamples = 13\nvalue = [12, 1]"] ;
204 -> 205 ;
206 [label="gini = 0.0\nsamples = 12\nvalue = [12, 0]"] ;
205 -> 206 ;
207 [label="gini = 0.0\nsamples = 1\nvalue = [0, 1]"] ;
205 -> 207 ;
208 [label="number customer service calls <= 2.5\ngini = 0.32\nsamples = 5\nvalue = [1, 4]"] ;
204 -> 208 ;
209 [label="gini = 0.0\nsamples = 4\nvalue = [0, 4]"] ;
208 -> 209 ;
210 [label="gini = 0.0\nsamples = 1\nvalue = [1, 0]"] ;
208 -> 210 ;
211 [label="number vmail messages <= 5.5\ngini = 0.483\nsamples = 44\nvalue = [18, 26]"] ;
187 -> 211 ;
212 [label="total night minutes <= 174.55\ngini = 0.36\nsamples = 34\nvalue = [8, 26]"] ;
211 -> 212 ;
213 [label="total day minutes <= 247.05\ngini = 0.444\nsamples = 9\nvalue = [6, 3]"] ;
212 -> 213 ;
214 [label="gini = 0.0\nsamples = 5\nvalue = [5, 0]"] ;
213 -> 214 ;
215 [label="account length <= 80.5\ngini = 0.375\nsamples = 4\nvalue = [1, 3]"] ;
213 -> 215 ;
216 [label="gini = 0.0\nsamples = 1\nvalue = [1, 0]"] ;
215 -> 216 ;
217 [label="gini = 0.0\nsamples = 3\nvalue = [0, 3]"] ;
215 -> 217 ;
218 [label="total intl charge <= 0.27\ngini = 0.147\nsamples = 25\nvalue = [2, 23]"] ;
212 -> 218 ;
219 [label="gini = 0.0\nsamples = 1\nvalue = [1, 0]"] ;
218 -> 219 ;
220 [label="total day minutes <= 234.0\ngini = 0.08\nsamples = 24\nvalue = [1, 23]"] ;
218 -> 220 ;
221 [label="total intl charge <= 2.495\ngini = 0.444\nsamples = 3\nvalue = [1, 2]"] ;
220 -> 221 ;
222 [label="gini = 0.0\nsamples = 1\nvalue = [1, 0]"] ;
221 -> 222 ;
223 [label="gini = 0.0\nsamples = 2\nvalue = [0, 2]"] ;
221 -> 223 ;
224 [label="gini = 0.0\nsamples = 21\nvalue = [0, 21]"] ;
220 -> 224 ;
225 [label="gini = 0.0\nsamples = 10\nvalue = [10, 0]"] ;
211 -> 225 ;
226 [label="total intl calls <= 2.5\ngini = 0.469\nsamples = 202\nvalue = [126, 76]"] ;
2 -> 226 ;
227 [label="gini = 0.0\nsamples = 39\nvalue = [0, 39]"] ;
226 -> 227 ;
228 [label="total intl charge <= 3.535\ngini = 0.351\nsamples = 163\nvalue = [126, 37]"] ;
226 -> 228 ;
229 [label="total eve minutes <= 308.0\ngini = 0.087\nsamples = 132\nvalue = [126, 6]"] ;
228 -> 229 ;
230 [label="total night minutes <= 83.75\ngini = 0.046\nsamples = 127\nvalue = [124, 3]"] ;
229 -> 230 ;
231 [label="gini = 0.0\nsamples = 1\nvalue = [0, 1]"] ;
230 -> 231 ;
232 [label="total day minutes <= 251.9\ngini = 0.031\nsamples = 126\nvalue = [124, 2]"] ;
230 -> 232 ;
233 [label="gini = 0.0\nsamples = 119\nvalue = [119, 0]"] ;
232 -> 233 ;
234 [label="total day calls <= 97.0\ngini = 0.408\nsamples = 7\nvalue = [5, 2]"] ;
232 -> 234 ;
235 [label="gini = 0.0\nsamples = 4\nvalue = [4, 0]"] ;
234 -> 235 ;
236 [label="total eve charge <= 16.46\ngini = 0.444\nsamples = 3\nvalue = [1, 2]"] ;
234 -> 236 ;
237 [label="gini = 0.0\nsamples = 1\nvalue = [1, 0]"] ;
236 -> 237 ;
238 [label="gini = 0.0\nsamples = 2\nvalue = [0, 2]"] ;
236 -> 238 ;
239 [label="total day charge <= 35.565\ngini = 0.48\nsamples = 5\nvalue = [2, 3]"] ;
229 -> 239 ;
240 [label="gini = 0.0\nsamples = 2\nvalue = [2, 0]"] ;
239 -> 240 ;
241 [label="gini = 0.0\nsamples = 3\nvalue = [0, 3]"] ;
239 -> 241 ;
242 [label="gini = 0.0\nsamples = 31\nvalue = [0, 31]"] ;
228 -> 242 ;
243 [label="total day minutes <= 174.4\ngini = 0.5\nsamples = 190\nvalue = [95, 95]"] ;
1 -> 243 ;
244 [label="total eve minutes <= 212.35\ngini = 0.347\nsamples = 103\nvalue = [23, 80]"] ;
243 -> 244 ;
245 [label="total night charge <= 10.17\ngini = 0.061\nsamples = 63\nvalue = [2, 61]"] ;
244 -> 245 ;
246 [label="gini = 0.0\nsamples = 46\nvalue = [0, 46]"] ;
245 -> 246 ;
247 [label="total eve minutes <= 185.1\ngini = 0.208\nsamples = 17\nvalue = [2, 15]"] ;
245 -> 247 ;
248 [label="gini = 0.0\nsamples = 14\nvalue = [0, 14]"] ;
247 -> 248 ;
249 [label="account length <= 88.5\ngini = 0.444\nsamples = 3\nvalue = [2, 1]"] ;
247 -> 249 ;
250 [label="gini = 0.0\nsamples = 1\nvalue = [0, 1]"] ;
249 -> 250 ;
251 [label="gini = 0.0\nsamples = 2\nvalue = [2, 0]"] ;
249 -> 251 ;
252 [label="total day charge <= 25.78\ngini = 0.499\nsamples = 40\nvalue = [21, 19]"] ;
244 -> 252 ;
253 [label="total intl calls <= 4.5\ngini = 0.34\nsamples = 23\nvalue = [5, 18]"] ;
252 -> 253 ;
254 [label="gini = 0.0\nsamples = 13\nvalue = [0, 13]"] ;
253 -> 254 ;
255 [label="total day minutes <= 134.6\ngini = 0.5\nsamples = 10\nvalue = [5, 5]"] ;
253 -> 255 ;
256 [label="total eve charge <= 24.11\ngini = 0.278\nsamples = 6\nvalue = [1, 5]"] ;
255 -> 256 ;
257 [label="gini = 0.0\nsamples = 5\nvalue = [0, 5]"] ;
256 -> 257 ;
258 [label="gini = 0.0\nsamples = 1\nvalue = [1, 0]"] ;
256 -> 258 ;
259 [label="gini = 0.0\nsamples = 4\nvalue = [4, 0]"] ;
255 -> 259 ;
260 [label="total night minutes <= 146.55\ngini = 0.111\nsamples = 17\nvalue = [16, 1]"] ;
252 -> 260 ;
261 [label="total day calls <= 98.5\ngini = 0.5\nsamples = 2\nvalue = [1, 1]"] ;
260 -> 261 ;
262 [label="gini = 0.0\nsamples = 1\nvalue = [1, 0]"] ;
261 -> 262 ;
263 [label="gini = 0.0\nsamples = 1\nvalue = [0, 1]"] ;
261 -> 263 ;
264 [label="gini = 0.0\nsamples = 15\nvalue = [15, 0]"] ;
260 -> 264 ;
265 [label="total eve charge <= 11.435\ngini = 0.285\nsamples = 87\nvalue = [72, 15]"] ;
243 -> 265 ;
266 [label="total intl calls <= 6.5\ngini = 0.32\nsamples = 10\nvalue = [2, 8]"] ;
265 -> 266 ;
267 [label="gini = 0.0\nsamples = 8\nvalue = [0, 8]"] ;
266 -> 267 ;
268 [label="gini = 0.0\nsamples = 2\nvalue = [2, 0]"] ;
266 -> 268 ;
269 [label="total day calls <= 133.5\ngini = 0.165\nsamples = 77\nvalue = [70, 7]"] ;
265 -> 269 ;
270 [label="number customer service calls <= 8.5\ngini = 0.124\nsamples = 75\nvalue = [70, 5]"] ;
269 -> 270 ;
271 [label="total day minutes <= 263.45\ngini = 0.102\nsamples = 74\nvalue = [70, 4]"] ;
270 -> 271 ;
272 [label="total intl charge <= 1.97\ngini = 0.08\nsamples = 72\nvalue = [69, 3]"] ;
271 -> 272 ;
273 [label="total night minutes <= 216.4\ngini = 0.375\nsamples = 8\nvalue = [6, 2]"] ;
272 -> 273 ;
274 [label="gini = 0.0\nsamples = 5\nvalue = [5, 0]"] ;
273 -> 274 ;
275 [label="total night calls <= 131.5\ngini = 0.444\nsamples = 3\nvalue = [1, 2]"] ;
273 -> 275 ;
276 [label="gini = 0.0\nsamples = 2\nvalue = [0, 2]"] ;
275 -> 276 ;
277 [label="gini = 0.0\nsamples = 1\nvalue = [1, 0]"] ;
275 -> 277 ;
278 [label="total day charge <= 30.64\ngini = 0.031\nsamples = 64\nvalue = [63, 1]"] ;
272 -> 278 ;
279 [label="total day charge <= 30.395\ngini = 0.245\nsamples = 7\nvalue = [6, 1]"] ;
278 -> 279 ;
280 [label="gini = 0.0\nsamples = 6\nvalue = [6, 0]"] ;
279 -> 280 ;
281 [label="gini = 0.0\nsamples = 1\nvalue = [0, 1]"] ;
279 -> 281 ;
282 [label="gini = 0.0\nsamples = 57\nvalue = [57, 0]"] ;
278 -> 282 ;
283 [label="number vmail messages <= 10.5\ngini = 0.5\nsamples = 2\nvalue = [1, 1]"] ;
271 -> 283 ;
284 [label="gini = 0.0\nsamples = 1\nvalue = [0, 1]"] ;
283 -> 284 ;
285 [label="gini = 0.0\nsamples = 1\nvalue = [1, 0]"] ;
283 -> 285 ;
286 [label="gini = 0.0\nsamples = 1\nvalue = [0, 1]"] ;
270 -> 286 ;
287 [label="gini = 0.0\nsamples = 2\nvalue = [0, 2]"] ;
269 -> 287 ;
288 [label="voice mail plan <= 0.5\ngini = 0.493\nsamples = 156\nvalue = [69, 87]"] ;
0 -> 288 [labeldistance=2.5, labelangle=-45, headlabel="False"] ;
289 [label="total eve charge <= 15.98\ngini = 0.392\nsamples = 112\nvalue = [30, 82]"] ;
288 -> 289 ;
290 [label="total day minutes <= 311.2\ngini = 0.476\nsamples = 41\nvalue = [25, 16]"] ;
289 -> 290 ;
291 [label="total night minutes <= 212.65\ngini = 0.408\nsamples = 35\nvalue = [25, 10]"] ;
290 -> 291 ;
292 [label="total intl minutes <= 14.0\ngini = 0.095\nsamples = 20\nvalue = [19, 1]"] ;
291 -> 292 ;
293 [label="gini = 0.0\nsamples = 19\nvalue = [19, 0]"] ;
292 -> 293 ;
294 [label="gini = 0.0\nsamples = 1\nvalue = [0, 1]"] ;
292 -> 294 ;
295 [label="total eve minutes <= 135.55\ngini = 0.48\nsamples = 15\nvalue = [6, 9]"] ;
291 -> 295 ;
296 [label="gini = 0.0\nsamples = 5\nvalue = [5, 0]"] ;
295 -> 296 ;
297 [label="total intl charge <= 2.225\ngini = 0.18\nsamples = 10\nvalue = [1, 9]"] ;
295 -> 297 ;
298 [label="total eve charge <= 15.18\ngini = 0.5\nsamples = 2\nvalue = [1, 1]"] ;
297 -> 298 ;
299 [label="gini = 0.0\nsamples = 1\nvalue = [1, 0]"] ;
298 -> 299 ;
300 [label="gini = 0.0\nsamples = 1\nvalue = [0, 1]"] ;
298 -> 300 ;
301 [label="gini = 0.0\nsamples = 8\nvalue = [0, 8]"] ;
297 -> 301 ;
302 [label="gini = 0.0\nsamples = 6\nvalue = [0, 6]"] ;
290 -> 302 ;
303 [label="total night charge <= 5.155\ngini = 0.131\nsamples = 71\nvalue = [5, 66]"] ;
289 -> 303 ;
304 [label="gini = 0.0\nsamples = 3\nvalue = [3, 0]"] ;
303 -> 304 ;
305 [label="total night charge <= 5.74\ngini = 0.057\nsamples = 68\nvalue = [2, 66]"] ;
303 -> 305 ;
306 [label="total night calls <= 104.0\ngini = 0.444\nsamples = 3\nvalue = [1, 2]"] ;
305 -> 306 ;
307 [label="gini = 0.0\nsamples = 2\nvalue = [0, 2]"] ;
306 -> 307 ;
308 [label="gini = 0.0\nsamples = 1\nvalue = [1, 0]"] ;
306 -> 308 ;
309 [label="total night calls <= 67.5\ngini = 0.03\nsamples = 65\nvalue = [1, 64]"] ;
305 -> 309 ;
310 [label="total night calls <= 61.5\ngini = 0.32\nsamples = 5\nvalue = [1, 4]"] ;
309 -> 310 ;
311 [label="gini = 0.0\nsamples = 4\nvalue = [0, 4]"] ;
310 -> 311 ;
312 [label="gini = 0.0\nsamples = 1\nvalue = [1, 0]"] ;
310 -> 312 ;
313 [label="gini = 0.0\nsamples = 60\nvalue = [0, 60]"] ;
309 -> 313 ;
314 [label="international plan <= 0.5\ngini = 0.201\nsamples = 44\nvalue = [39, 5]"] ;
288 -> 314 ;
315 [label="gini = 0.0\nsamples = 36\nvalue = [36, 0]"] ;
314 -> 315 ;
316 [label="total day charge <= 46.975\ngini = 0.469\nsamples = 8\nvalue = [3, 5]"] ;
314 -> 316 ;
317 [label="gini = 0.0\nsamples = 4\nvalue = [0, 4]"] ;
316 -> 317 ;
318 [label="total night minutes <= 241.85\ngini = 0.375\nsamples = 4\nvalue = [3, 1]"] ;
316 -> 318 ;
319 [label="gini = 0.0\nsamples = 3\nvalue = [3, 0]"] ;
318 -> 319 ;
320 [label="gini = 0.0\nsamples = 1\nvalue = [0, 1]"] ;
318 -> 320 ;
}