digraph Tree {
node [shape=box] ;
0 [label="total day charge <= 44.975\ngini = 0.239\nsamples = 2500\nvalue = [2153, 347]"] ;
1 [label="number customer service calls <= 3.5\ngini = 0.197\nsamples = 2344\nvalue = [2084, 260]"] ;
0 -> 1 [labeldistance=2.5, labelangle=45, headlabel="True"] ;
2 [label="international plan <= 0.5\ngini = 0.141\nsamples = 2154\nvalue = [1989, 165]"] ;
1 -> 2 ;
3 [label="total day minutes <= 232.0\ngini = 0.087\nsamples = 1952\nvalue = [1863, 89]"] ;
2 -> 3 ;
4 [label="total eve minutes <= 329.25\ngini = 0.059\nsamples = 1746\nvalue = [1693, 53]"] ;
3 -> 4 ;
5 [label="total day minutes <= 210.55\ngini = 0.055\nsamples = 1736\nvalue = [1687, 49]"] ;
4 -> 5 ;
6 [label="number vmail messages <= 43.5\ngini = 0.043\nsamples = 1492\nvalue = [1459, 33]"] ;
5 -> 6 ;
7 [label="total night charge <= 15.855\ngini = 0.041\nsamples = 1485\nvalue = [1454, 31]"] ;
6 -> 7 ;
8 [label="account length <= 224.5\ngini = 0.04\nsamples = 1482\nvalue = [1452, 30]"] ;
7 -> 8 ;
9 [label="total night calls <= 104.5\ngini = 0.038\nsamples = 1478\nvalue = [1449, 29]"] ;
8 -> 9 ;
10 [label="total intl calls <= 14.5\ngini = 0.023\nsamples = 863\nvalue = [853, 10]"] ;
9 -> 10 ;
11 [label="total day calls <= 128.5\ngini = 0.021\nsamples = 860\nvalue = [851, 9]"] ;
10 -> 11 ;
12 [label="total night minutes <= 255.75\ngini = 0.015\nsamples = 795\nvalue = [789, 6]"] ;
11 -> 12 ;
13 [label="total day calls <= 115.5\ngini = 0.009\nsamples = 675\nvalue = [672, 3]"] ;
12 -> 13 ;
14 [label="number vmail messages <= 26.5\ngini = 0.004\nsamples = 565\nvalue = [564, 1]"] ;
13 -> 14 ;
15 [label="gini = 0.0\nsamples = 464\nvalue = [464, 0]"] ;
14 -> 15 ;
16 [label="number vmail messages <= 27.5\ngini = 0.02\nsamples = 101\nvalue = [100, 1]"] ;
14 -> 16 ;
17 [label="account length <= 100.0\ngini = 0.375\nsamples = 4\nvalue = [3, 1]"] ;
16 -> 17 ;
18 [label="gini = 0.0\nsamples = 3\nvalue = [3, 0]"] ;
17 -> 18 ;
19 [label="gini = 0.0\nsamples = 1\nvalue = [0, 1]"] ;
17 -> 19 ;
20 [label="gini = 0.0\nsamples = 97\nvalue = [97, 0]"] ;
16 -> 20 ;
21 [label="total day calls <= 116.5\ngini = 0.036\nsamples = 110\nvalue = [108, 2]"] ;
13 -> 21 ;
22 [label="area code <= 462.5\ngini = 0.142\nsamples = 13\nvalue = [12, 1]"] ;
21 -> 22 ;
23 [label="gini = 0.0\nsamples = 12\nvalue = [12, 0]"] ;
22 -> 23 ;
24 [label="gini = 0.0\nsamples = 1\nvalue = [0, 1]"] ;
22 -> 24 ;
25 [label="total night charge <= 6.545\ngini = 0.02\nsamples = 97\nvalue = [96, 1]"] ;
21 -> 25 ;
26 [label="total night minutes <= 142.75\ngini = 0.124\nsamples = 15\nvalue = [14, 1]"] ;
25 -> 26 ;
27 [label="gini = 0.0\nsamples = 14\nvalue = [14, 0]"] ;
26 -> 27 ;
28 [label="gini = 0.0\nsamples = 1\nvalue = [0, 1]"] ;
26 -> 28 ;
29 [label="gini = 0.0\nsamples = 82\nvalue = [82, 0]"] ;
25 -> 29 ;
30 [label="total night minutes <= 255.85\ngini = 0.049\nsamples = 120\nvalue = [117, 3]"] ;
12 -> 30 ;
31 [label="total night calls <= 93.0\ngini = 0.5\nsamples = 2\nvalue = [1, 1]"] ;
30 -> 31 ;
32 [label="gini = 0.0\nsamples = 1\nvalue = [0, 1]"] ;
31 -> 32 ;
33 [label="gini = 0.0\nsamples = 1\nvalue = [1, 0]"] ;
31 -> 33 ;
34 [label="total eve calls <= 134.5\ngini = 0.033\nsamples = 118\nvalue = [116, 2]"] ;
30 -> 34 ;
35 [label="total intl calls <= 1.5\ngini = 0.017\nsamples = 114\nvalue = [113, 1]"] ;
34 -> 35 ;
36 [label="account length <= 76.0\ngini = 0.278\nsamples = 6\nvalue = [5, 1]"] ;
35 -> 36 ;
37 [label="gini = 0.0\nsamples = 1\nvalue = [0, 1]"] ;
36 -> 37 ;
38 [label="gini = 0.0\nsamples = 5\nvalue = [5, 0]"] ;
36 -> 38 ;
39 [label="gini = 0.0\nsamples = 108\nvalue = [108, 0]"] ;
35 -> 39 ;
40 [label="total day calls <= 98.5\ngini = 0.375\nsamples = 4\nvalue = [3, 1]"] ;
34 -> 40 ;
41 [label="gini = 0.0\nsamples = 1\nvalue = [0, 1]"] ;
40 -> 41 ;
42 [label="gini = 0.0\nsamples = 3\nvalue = [3, 0]"] ;
40 -> 42 ;
43 [label="total eve charge <= 6.635\ngini = 0.088\nsamples = 65\nvalue = [62, 3]"] ;
11 -> 43 ;
44 [label="gini = 0.0\nsamples = 1\nvalue = [0, 1]"] ;
43 -> 44 ;
45 [label="area code <= 411.5\ngini = 0.061\nsamples = 64\nvalue = [62, 2]"] ;
43 -> 45 ;
46 [label="total intl calls <= 5.5\ngini = 0.245\nsamples = 14\nvalue = [12, 2]"] ;
45 -> 46 ;
47 [label="gini = 0.0\nsamples = 8\nvalue = [8, 0]"] ;
46 -> 47 ;
48 [label="total intl charge <= 3.15\ngini = 0.444\nsamples = 6\nvalue = [4, 2]"] ;
46 -> 48 ;
49 [label="gini = 0.0\nsamples = 3\nvalue = [3, 0]"] ;
48 -> 49 ;
50 [label="total eve charge <= 16.67\ngini = 0.444\nsamples = 3\nvalue = [1, 2]"] ;
48 -> 50 ;
51 [label="gini = 0.0\nsamples = 1\nvalue = [1, 0]"] ;
50 -> 51 ;
52 [label="gini = 0.0\nsamples = 2\nvalue = [0, 2]"] ;
50 -> 52 ;
53 [label="gini = 0.0\nsamples = 50\nvalue = [50, 0]"] ;
45 -> 53 ;
54 [label="total night minutes <= 176.65\ngini = 0.444\nsamples = 3\nvalue = [2, 1]"] ;
10 -> 54 ;
55 [label="gini = 0.0\nsamples = 1\nvalue = [0, 1]"] ;
54 -> 55 ;
56 [label="gini = 0.0\nsamples = 2\nvalue = [2, 0]"] ;
54 -> 56 ;
57 [label="account length <= 152.5\ngini = 0.06\nsamples = 615\nvalue = [596, 19]"] ;
9 -> 57 ;
58 [label="total night charge <= 11.565\ngini = 0.049\nsamples = 556\nvalue = [542, 14]"] ;
57 -> 58 ;
59 [label="total day charge <= 13.975\ngini = 0.036\nsamples = 489\nvalue = [480, 9]"] ;
58 -> 59 ;
60 [label="total day minutes <= 81.75\ngini = 0.147\nsamples = 25\nvalue = [23, 2]"] ;
59 -> 60 ;
61 [label="account length <= 48.0\ngini = 0.08\nsamples = 24\nvalue = [23, 1]"] ;
60 -> 61 ;
62 [label="total eve charge <= 19.105\ngini = 0.5\nsamples = 2\nvalue = [1, 1]"] ;
61 -> 62 ;
63 [label="gini = 0.0\nsamples = 1\nvalue = [0, 1]"] ;
62 -> 63 ;
64 [label="gini = 0.0\nsamples = 1\nvalue = [1, 0]"] ;
62 -> 64 ;
65 [label="gini = 0.0\nsamples = 22\nvalue = [22, 0]"] ;
61 -> 65 ;
66 [label="gini = 0.0\nsamples = 1\nvalue = [0, 1]"] ;
60 -> 66 ;
67 [label="total night charge <= 8.015\ngini = 0.03\nsamples = 464\nvalue = [457, 7]"] ;
59 -> 67 ;
68 [label="total night minutes <= 178.05\ngini = 0.065\nsamples = 178\nvalue = [172, 6]"] ;
67 -> 68 ;
69 [label="number vmail messages <= 16.5\ngini = 0.055\nsamples = 176\nvalue = [171, 5]"] ;
68 -> 69 ;
70 [label="total eve calls <= 130.0\ngini = 0.016\nsamples = 127\nvalue = [126, 1]"] ;
69 -> 70 ;
71 [label="gini = 0.0\nsamples = 120\nvalue = [120, 0]"] ;
70 -> 71 ;
72 [label="total intl minutes <= 11.6\ngini = 0.245\nsamples = 7\nvalue = [6, 1]"] ;
70 -> 72 ;
73 [label="gini = 0.0\nsamples = 6\nvalue = [6, 0]"] ;
72 -> 73 ;
74 [label="gini = 0.0\nsamples = 1\nvalue = [0, 1]"] ;
72 -> 74 ;
75 [label="total day calls <= 129.0\ngini = 0.15\nsamples = 49\nvalue = [45, 4]"] ;
69 -> 75 ;
76 [label="number vmail messages <= 18.5\ngini = 0.117\nsamples = 48\nvalue = [45, 3]"] ;
75 -> 76 ;
77 [label="gini = 0.0\nsamples = 1\nvalue = [0, 1]"] ;
76 -> 77 ;
78 [label="account length <= 121.0\ngini = 0.081\nsamples = 47\nvalue = [45, 2]"] ;
76 -> 78 ;
79 [label="gini = 0.0\nsamples = 38\nvalue = [38, 0]"] ;
78 -> 79 ;
80 [label="area code <= 462.5\ngini = 0.346\nsamples = 9\nvalue = [7, 2]"] ;
78 -> 80 ;
81 [label="account length <= 122.5\ngini = 0.219\nsamples = 8\nvalue = [7, 1]"] ;
80 -> 81 ;
82 [label="gini = 0.0\nsamples = 1\nvalue = [0, 1]"] ;
81 -> 82 ;
83 [label="gini = 0.0\nsamples = 7\nvalue = [7, 0]"] ;
81 -> 83 ;
84 [label="gini = 0.0\nsamples = 1\nvalue = [0, 1]"] ;
80 -> 84 ;
85 [label="gini = 0.0\nsamples = 1\nvalue = [0, 1]"] ;
75 -> 85 ;
86 [label="total intl minutes <= 8.5\ngini = 0.5\nsamples = 2\nvalue = [1, 1]"] ;
68 -> 86 ;
87 [label="gini = 0.0\nsamples = 1\nvalue = [1, 0]"] ;
86 -> 87 ;
88 [label="gini = 0.0\nsamples = 1\nvalue = [0, 1]"] ;
86 -> 88 ;
89 [label="total eve calls <= 69.0\ngini = 0.007\nsamples = 286\nvalue = [285, 1]"] ;
67 -> 89 ;
90 [label="total eve calls <= 67.0\ngini = 0.117\nsamples = 16\nvalue = [15, 1]"] ;
89 -> 90 ;
91 [label="gini = 0.0\nsamples = 14\nvalue = [14, 0]"] ;
90 -> 91 ;
92 [label="total intl charge <= 2.78\ngini = 0.5\nsamples = 2\nvalue = [1, 1]"] ;
90 -> 92 ;
93 [label="gini = 0.0\nsamples = 1\nvalue = [1, 0]"] ;
92 -> 93 ;
94 [label="gini = 0.0\nsamples = 1\nvalue = [0, 1]"] ;
92 -> 94 ;
95 [label="gini = 0.0\nsamples = 270\nvalue = [270, 0]"] ;
89 -> 95 ;
96 [label="total night minutes <= 258.4\ngini = 0.138\nsamples = 67\nvalue = [62, 5]"] ;
58 -> 96 ;
97 [label="gini = 0.0\nsamples = 1\nvalue = [0, 1]"] ;
96 -> 97 ;
98 [label="account length <= 49.5\ngini = 0.114\nsamples = 66\nvalue = [62, 4]"] ;
96 -> 98 ;
99 [label="total day calls <= 85.5\ngini = 0.48\nsamples = 5\nvalue = [3, 2]"] ;
98 -> 99 ;
100 [label="gini = 0.0\nsamples = 2\nvalue = [0, 2]"] ;
99 -> 100 ;
101 [label="gini = 0.0\nsamples = 3\nvalue = [3, 0]"] ;
99 -> 101 ;
102 [label="total night calls <= 124.5\ngini = 0.063\nsamples = 61\nvalue = [59, 2]"] ;
98 -> 102 ;
103 [label="gini = 0.0\nsamples = 45\nvalue = [45, 0]"] ;
102 -> 103 ;
104 [label="total night calls <= 129.0\ngini = 0.219\nsamples = 16\nvalue = [14, 2]"] ;
102 -> 104 ;
105 [label="total day calls <= 126.0\ngini = 0.48\nsamples = 5\nvalue = [3, 2]"] ;
104 -> 105 ;
106 [label="account length <= 87.0\ngini = 0.444\nsamples = 3\nvalue = [1, 2]"] ;
105 -> 106 ;
107 [label="gini = 0.0\nsamples = 1\nvalue = [1, 0]"] ;
106 -> 107 ;
108 [label="gini = 0.0\nsamples = 2\nvalue = [0, 2]"] ;
106 -> 108 ;
109 [label="gini = 0.0\nsamples = 2\nvalue = [2, 0]"] ;
105 -> 109 ;
110 [label="gini = 0.0\nsamples = 11\nvalue = [11, 0]"] ;
104 -> 110 ;
111 [label="total eve calls <= 128.5\ngini = 0.155\nsamples = 59\nvalue = [54, 5]"] ;
57 -> 111 ;
112 [label="account length <= 155.5\ngini = 0.105\nsamples = 54\nvalue = [51, 3]"] ;
111 -> 112 ;
113 [label="total day charge <= 27.415\ngini = 0.298\nsamples = 11\nvalue = [9, 2]"] ;
112 -> 113 ;
114 [label="gini = 0.0\nsamples = 1\nvalue = [0, 1]"] ;
113 -> 114 ;
115 [label="number customer service calls <= 0.5\ngini = 0.18\nsamples = 10\nvalue = [9, 1]"] ;
113 -> 115 ;
116 [label="gini = 0.0\nsamples = 1\nvalue = [0, 1]"] ;
115 -> 116 ;
117 [label="gini = 0.0\nsamples = 9\nvalue = [9, 0]"] ;
115 -> 117 ;
118 [label="total day charge <= 16.51\ngini = 0.045\nsamples = 43\nvalue = [42, 1]"] ;
112 -> 118 ;
119 [label="total day minutes <= 91.65\ngini = 0.375\nsamples = 4\nvalue = [3, 1]"] ;
118 -> 119 ;
120 [label="gini = 0.0\nsamples = 3\nvalue = [3, 0]"] ;
119 -> 120 ;
121 [label="gini = 0.0\nsamples = 1\nvalue = [0, 1]"] ;
119 -> 121 ;
122 [label="gini = 0.0\nsamples = 39\nvalue = [39, 0]"] ;
118 -> 122 ;
123 [label="total eve minutes <= 199.0\ngini = 0.48\nsamples = 5\nvalue = [3, 2]"] ;
111 -> 123 ;
124 [label="gini = 0.0\nsamples = 3\nvalue = [3, 0]"] ;
123 -> 124 ;
125 [label="gini = 0.0\nsamples = 2\nvalue = [0, 2]"] ;
123 -> 125 ;
126 [label="number customer service calls <= 0.5\ngini = 0.375\nsamples = 4\nvalue = [3, 1]"] ;
8 -> 126 ;
127 [label="gini = 0.0\nsamples = 1\nvalue = [0, 1]"] ;
126 -> 127 ;
128 [label="gini = 0.0\nsamples = 3\nvalue = [3, 0]"] ;
126 -> 128 ;
129 [label="total night charge <= 16.26\ngini = 0.444\nsamples = 3\nvalue = [2, 1]"] ;
7 -> 129 ;
130 [label="gini = 0.0\nsamples = 1\nvalue = [0, 1]"] ;
129 -> 130 ;
131 [label="gini = 0.0\nsamples = 2\nvalue = [2, 0]"] ;
129 -> 131 ;
132 [label="account length <= 131.5\ngini = 0.408\nsamples = 7\nvalue = [5, 2]"] ;
6 -> 132 ;
133 [label="gini = 0.0\nsamples = 5\nvalue = [5, 0]"] ;
132 -> 133 ;
134 [label="gini = 0.0\nsamples = 2\nvalue = [0, 2]"] ;
132 -> 134 ;
135 [label="total eve minutes <= 275.0\ngini = 0.123\nsamples = 244\nvalue = [228, 16]"] ;
5 -> 135 ;
136 [label="total day minutes <= 210.65\ngini = 0.09\nsamples = 232\nvalue = [221, 11]"] ;
135 -> 136 ;
137 [label="number customer service calls <= 1.0\ngini = 0.5\nsamples = 2\nvalue = [1, 1]"] ;
136 -> 137 ;
138 [label="gini = 0.0\nsamples = 1\nvalue = [1, 0]"] ;
137 -> 138 ;
139 [label="gini = 0.0\nsamples = 1\nvalue = [0, 1]"] ;
137 -> 139 ;
140 [label="total intl minutes <= 10.85\ngini = 0.083\nsamples = 230\nvalue = [220, 10]"] ;
136 -> 140 ;
141 [label="total night calls <= 105.5\ngini = 0.127\nsamples = 147\nvalue = [137, 10]"] ;
140 -> 141 ;
142 [label="number vmail messages <= 40.0\ngini = 0.189\nsamples = 85\nvalue = [76, 9]"] ;
141 -> 142 ;
143 [label="total night calls <= 83.5\ngini = 0.172\nsamples = 84\nvalue = [76, 8]"] ;
142 -> 143 ;
144 [label="gini = 0.0\nsamples = 27\nvalue = [27, 0]"] ;
143 -> 144 ;
145 [label="total night calls <= 84.5\ngini = 0.241\nsamples = 57\nvalue = [49, 8]"] ;
143 -> 145 ;
146 [label="gini = 0.0\nsamples = 1\nvalue = [0, 1]"] ;
145 -> 146 ;
147 [label="total intl charge <= 2.765\ngini = 0.219\nsamples = 56\nvalue = [49, 7]"] ;
145 -> 147 ;
148 [label="total day calls <= 130.5\ngini = 0.136\nsamples = 41\nvalue = [38, 3]"] ;
147 -> 148 ;
149 [label="account length <= 69.0\ngini = 0.097\nsamples = 39\nvalue = [37, 2]"] ;
148 -> 149 ;
150 [label="total eve charge <= 12.18\ngini = 0.408\nsamples = 7\nvalue = [5, 2]"] ;
149 -> 150 ;
151 [label="gini = 0.0\nsamples = 1\nvalue = [0, 1]"] ;
150 -> 151 ;
152 [label="total day minutes <= 214.7\ngini = 0.278\nsamples = 6\nvalue = [5, 1]"] ;
150 -> 152 ;
153 [label="gini = 0.0\nsamples = 1\nvalue = [0, 1]"] ;
152 -> 153 ;
154 [label="gini = 0.0\nsamples = 5\nvalue = [5, 0]"] ;
152 -> 154 ;
155 [label="gini = 0.0\nsamples = 32\nvalue = [32, 0]"] ;
149 -> 155 ;
156 [label="total night minutes <= 147.8\ngini = 0.5\nsamples = 2\nvalue = [1, 1]"] ;
148 -> 156 ;
157 [label="gini = 0.0\nsamples = 1\nvalue = [1, 0]"] ;
156 -> 157 ;
158 [label="gini = 0.0\nsamples = 1\nvalue = [0, 1]"] ;
156 -> 158 ;
159 [label="total day calls <= 103.5\ngini = 0.391\nsamples = 15\nvalue = [11, 4]"] ;
147 -> 159 ;
160 [label="total eve calls <= 131.0\ngini = 0.444\nsamples = 6\nvalue = [2, 4]"] ;
159 -> 160 ;
161 [label="gini = 0.0\nsamples = 3\nvalue = [0, 3]"] ;
160 -> 161 ;
162 [label="total intl charge <= 2.875\ngini = 0.444\nsamples = 3\nvalue = [2, 1]"] ;
160 -> 162 ;
163 [label="gini = 0.0\nsamples = 1\nvalue = [0, 1]"] ;
162 -> 163 ;
164 [label="gini = 0.0\nsamples = 2\nvalue = [2, 0]"] ;
162 -> 164 ;
165 [label="gini = 0.0\nsamples = 9\nvalue = [9, 0]"] ;
159 -> 165 ;
166 [label="gini = 0.0\nsamples = 1\nvalue = [0, 1]"] ;
142 -> 166 ;
167 [label="total night minutes <= 262.0\ngini = 0.032\nsamples = 62\nvalue = [61, 1]"] ;
141 -> 167 ;
168 [label="gini = 0.0\nsamples = 57\nvalue = [57, 0]"] ;
167 -> 168 ;
169 [label="total day calls <= 65.0\ngini = 0.32\nsamples = 5\nvalue = [4, 1]"] ;
167 -> 169 ;
170 [label="gini = 0.0\nsamples = 1\nvalue = [0, 1]"] ;
169 -> 170 ;
171 [label="gini = 0.0\nsamples = 4\nvalue = [4, 0]"] ;
169 -> 171 ;
172 [label="gini = 0.0\nsamples = 83\nvalue = [83, 0]"] ;
140 -> 172 ;
173 [label="total intl minutes <= 9.85\ngini = 0.486\nsamples = 12\nvalue = [7, 5]"] ;
135 -> 173 ;
174 [label="gini = 0.0\nsamples = 5\nvalue = [5, 0]"] ;
173 -> 174 ;
175 [label="area code <= 411.5\ngini = 0.408\nsamples = 7\nvalue = [2, 5]"] ;
173 -> 175 ;
176 [label="total eve charge <= 24.175\ngini = 0.444\nsamples = 3\nvalue = [2, 1]"] ;
175 -> 176 ;
177 [label="gini = 0.0\nsamples = 1\nvalue = [0, 1]"] ;
176 -> 177 ;
178 [label="gini = 0.0\nsamples = 2\nvalue = [2, 0]"] ;
176 -> 178 ;
179 [label="gini = 0.0\nsamples = 4\nvalue = [0, 4]"] ;
175 -> 179 ;
180 [label="total day calls <= 105.0\ngini = 0.48\nsamples = 10\nvalue = [6, 4]"] ;
4 -> 180 ;
181 [label="gini = 0.0\nsamples = 5\nvalue = [5, 0]"] ;
180 -> 181 ;
182 [label="number vmail messages <= 10.5\ngini = 0.32\nsamples = 5\nvalue = [1, 4]"] ;
180 -> 182 ;
183 [label="gini = 0.0\nsamples = 4\nvalue = [0, 4]"] ;
182 -> 183 ;
184 [label="gini = 0.0\nsamples = 1\nvalue = [1, 0]"] ;
182 -> 184 ;
185 [label="total eve minutes <= 242.35\ngini = 0.288\nsamples = 206\nvalue = [170, 36]"] ;
3 -> 185 ;
186 [label="total night charge <= 11.94\ngini = 0.116\nsamples = 162\nvalue = [152, 10]"] ;
185 -> 186 ;
187 [label="total eve calls <= 77.5\ngini = 0.067\nsamples = 144\nvalue = [139, 5]"] ;
186 -> 187 ;
188 [label="account length <= 79.5\ngini = 0.337\nsamples = 14\nvalue = [11, 3]"] ;
187 -> 188 ;
189 [label="total day charge <= 41.3\ngini = 0.375\nsamples = 4\nvalue = [1, 3]"] ;
188 -> 189 ;
190 [label="gini = 0.0\nsamples = 1\nvalue = [1, 0]"] ;
189 -> 190 ;
191 [label="gini = 0.0\nsamples = 3\nvalue = [0, 3]"] ;
189 -> 191 ;
192 [label="gini = 0.0\nsamples = 10\nvalue = [10, 0]"] ;
188 -> 192 ;
193 [label="total night calls <= 70.5\ngini = 0.03\nsamples = 130\nvalue = [128, 2]"] ;
187 -> 193 ;
194 [label="total eve charge <= 17.605\ngini = 0.245\nsamples = 7\nvalue = [6, 1]"] ;
193 -> 194 ;
195 [label="gini = 0.0\nsamples = 6\nvalue = [6, 0]"] ;
194 -> 195 ;
196 [label="gini = 0.0\nsamples = 1\nvalue = [0, 1]"] ;
194 -> 196 ;
197 [label="total day charge <= 40.23\ngini = 0.016\nsamples = 123\nvalue = [122, 1]"] ;
193 -> 197 ;
198 [label="total day minutes <= 236.55\ngini = 0.091\nsamples = 21\nvalue = [20, 1]"] ;
197 -> 198 ;
199 [label="gini = 0.0\nsamples = 20\nvalue = [20, 0]"] ;
198 -> 199 ;
200 [label="gini = 0.0\nsamples = 1\nvalue = [0, 1]"] ;
198 -> 200 ;
201 [label="gini = 0.0\nsamples = 102\nvalue = [102, 0]"] ;
197 -> 201 ;
202 [label="total eve charge <= 16.67\ngini = 0.401\nsamples = 18\nvalue = [13, 5]"] ;
186 -> 202 ;
203 [label="total day minutes <= 258.55\ngini = 0.142\nsamples = 13\nvalue = [12, 1]"] ;
202 -> 203 ;
204 [label="gini = 0.0\nsamples = 12\nvalue = [12, 0]"] ;
203 -> 204 ;
205 [label="gini = 0.0\nsamples = 1\nvalue = [0, 1]"] ;
203 -> 205 ;
206 [label="number customer service calls <= 2.5\ngini = 0.32\nsamples = 5\nvalue = [1, 4]"] ;
202 -> 206 ;
207 [label="gini = 0.0\nsamples = 4\nvalue = [0, 4]"] ;
206 -> 207 ;
208 [label="gini = 0.0\nsamples = 1\nvalue = [1, 0]"] ;
206 -> 208 ;
209 [label="voice mail plan <= 0.5\ngini = 0.483\nsamples = 44\nvalue = [18, 26]"] ;
185 -> 209 ;
210 [label="total night minutes <= 174.55\ngini = 0.36\nsamples = 34\nvalue = [8, 26]"] ;
209 -> 210 ;
211 [label="total day minutes <= 247.05\ngini = 0.444\nsamples = 9\nvalue = [6, 3]"] ;
210 -> 211 ;
212 [label="gini = 0.0\nsamples = 5\nvalue = [5, 0]"] ;
211 -> 212 ;
213 [label="total day charge <= 43.435\ngini = 0.375\nsamples = 4\nvalue = [1, 3]"] ;
211 -> 213 ;
214 [label="gini = 0.0\nsamples = 3\nvalue = [0, 3]"] ;
213 -> 214 ;
215 [label="gini = 0.0\nsamples = 1\nvalue = [1, 0]"] ;
213 -> 215 ;
216 [label="total intl charge <= 0.27\ngini = 0.147\nsamples = 25\nvalue = [2, 23]"] ;
210 -> 216 ;
217 [label="gini = 0.0\nsamples = 1\nvalue = [1, 0]"] ;
216 -> 217 ;
218 [label="total day minutes <= 234.0\ngini = 0.08\nsamples = 24\nvalue = [1, 23]"] ;
216 -> 218 ;
219 [label="total eve minutes <= 284.95\ngini = 0.444\nsamples = 3\nvalue = [1, 2]"] ;
218 -> 219 ;
220 [label="gini = 0.0\nsamples = 1\nvalue = [1, 0]"] ;
219 -> 220 ;
221 [label="gini = 0.0\nsamples = 2\nvalue = [0, 2]"] ;
219 -> 221 ;
222 [label="gini = 0.0\nsamples = 21\nvalue = [0, 21]"] ;
218 -> 222 ;
223 [label="gini = 0.0\nsamples = 10\nvalue = [10, 0]"] ;
209 -> 223 ;
224 [label="total intl calls <= 2.5\ngini = 0.469\nsamples = 202\nvalue = [126, 76]"] ;
2 -> 224 ;
225 [label="gini = 0.0\nsamples = 39\nvalue = [0, 39]"] ;
224 -> 225 ;
226 [label="total intl minutes <= 13.1\ngini = 0.351\nsamples = 163\nvalue = [126, 37]"] ;
224 -> 226 ;
227 [label="total eve charge <= 26.18\ngini = 0.087\nsamples = 132\nvalue = [126, 6]"] ;
226 -> 227 ;
228 [label="total night minutes <= 83.75\ngini = 0.046\nsamples = 127\nvalue = [124, 3]"] ;
227 -> 228 ;
229 [label="gini = 0.0\nsamples = 1\nvalue = [0, 1]"] ;
228 -> 229 ;
230 [label="total day charge <= 42.825\ngini = 0.031\nsamples = 126\nvalue = [124, 2]"] ;
228 -> 230 ;
231 [label="gini = 0.0\nsamples = 119\nvalue = [119, 0]"] ;
230 -> 231 ;
232 [label="total day minutes <= 255.75\ngini = 0.408\nsamples = 7\nvalue = [5, 2]"] ;
230 -> 232 ;
233 [label="total eve charge <= 16.46\ngini = 0.444\nsamples = 3\nvalue = [1, 2]"] ;
232 -> 233 ;
234 [label="gini = 0.0\nsamples = 1\nvalue = [1, 0]"] ;
233 -> 234 ;
235 [label="gini = 0.0\nsamples = 2\nvalue = [0, 2]"] ;
233 -> 235 ;
236 [label="gini = 0.0\nsamples = 4\nvalue = [4, 0]"] ;
232 -> 236 ;
237 [label="total day charge <= 35.565\ngini = 0.48\nsamples = 5\nvalue = [2, 3]"] ;
227 -> 237 ;
238 [label="gini = 0.0\nsamples = 2\nvalue = [2, 0]"] ;
237 -> 238 ;
239 [label="gini = 0.0\nsamples = 3\nvalue = [0, 3]"] ;
237 -> 239 ;
240 [label="gini = 0.0\nsamples = 31\nvalue = [0, 31]"] ;
226 -> 240 ;
241 [label="total day charge <= 29.65\ngini = 0.5\nsamples = 190\nvalue = [95, 95]"] ;
1 -> 241 ;
242 [label="total eve charge <= 18.05\ngini = 0.347\nsamples = 103\nvalue = [23, 80]"] ;
241 -> 242 ;
243 [label="total night charge <= 10.17\ngini = 0.061\nsamples = 63\nvalue = [2, 61]"] ;
242 -> 243 ;
244 [label="gini = 0.0\nsamples = 46\nvalue = [0, 46]"] ;
243 -> 244 ;
245 [label="total eve minutes <= 185.1\ngini = 0.208\nsamples = 17\nvalue = [2, 15]"] ;
243 -> 245 ;
246 [label="gini = 0.0\nsamples = 14\nvalue = [0, 14]"] ;
245 -> 246 ;
247 [label="total intl charge <= 2.645\ngini = 0.444\nsamples = 3\nvalue = [2, 1]"] ;
245 -> 247 ;
248 [label="gini = 0.0\nsamples = 1\nvalue = [0, 1]"] ;
247 -> 248 ;
249 [label="gini = 0.0\nsamples = 2\nvalue = [2, 0]"] ;
247 -> 249 ;
250 [label="total day charge <= 25.78\ngini = 0.499\nsamples = 40\nvalue = [21, 19]"] ;
242 -> 250 ;
251 [label="total intl calls <= 4.5\ngini = 0.34\nsamples = 23\nvalue = [5, 18]"] ;
250 -> 251 ;
252 [label="gini = 0.0\nsamples = 13\nvalue = [0, 13]"] ;
251 -> 252 ;
253 [label="total day minutes <= 134.6\ngini = 0.5\nsamples = 10\nvalue = [5, 5]"] ;
251 -> 253 ;
254 [label="total day calls <= 72.5\ngini = 0.278\nsamples = 6\nvalue = [1, 5]"] ;
253 -> 254 ;
255 [label="gini = 0.0\nsamples = 1\nvalue = [1, 0]"] ;
254 -> 255 ;
256 [label="gini = 0.0\nsamples = 5\nvalue = [0, 5]"] ;
254 -> 256 ;
257 [label="gini = 0.0\nsamples = 4\nvalue = [4, 0]"] ;
253 -> 257 ;
258 [label="total night charge <= 6.595\ngini = 0.111\nsamples = 17\nvalue = [16, 1]"] ;
250 -> 258 ;
259 [label="total intl minutes <= 10.0\ngini = 0.5\nsamples = 2\nvalue = [1, 1]"] ;
258 -> 259 ;
260 [label="gini = 0.0\nsamples = 1\nvalue = [0, 1]"] ;
259 -> 260 ;
261 [label="gini = 0.0\nsamples = 1\nvalue = [1, 0]"] ;
259 -> 261 ;
262 [label="gini = 0.0\nsamples = 15\nvalue = [15, 0]"] ;
258 -> 262 ;
263 [label="total eve minutes <= 134.55\ngini = 0.285\nsamples = 87\nvalue = [72, 15]"] ;
241 -> 263 ;
264 [label="total intl calls <= 6.5\ngini = 0.32\nsamples = 10\nvalue = [2, 8]"] ;
263 -> 264 ;
265 [label="gini = 0.0\nsamples = 8\nvalue = [0, 8]"] ;
264 -> 265 ;
266 [label="gini = 0.0\nsamples = 2\nvalue = [2, 0]"] ;
264 -> 266 ;
267 [label="total day calls <= 133.5\ngini = 0.165\nsamples = 77\nvalue = [70, 7]"] ;
263 -> 267 ;
268 [label="number customer service calls <= 8.5\ngini = 0.124\nsamples = 75\nvalue = [70, 5]"] ;
267 -> 268 ;
269 [label="total day charge <= 44.79\ngini = 0.102\nsamples = 74\nvalue = [70, 4]"] ;
268 -> 269 ;
270 [label="total intl minutes <= 7.3\ngini = 0.08\nsamples = 72\nvalue = [69, 3]"] ;
269 -> 270 ;
271 [label="total night charge <= 9.74\ngini = 0.375\nsamples = 8\nvalue = [6, 2]"] ;
270 -> 271 ;
272 [label="gini = 0.0\nsamples = 5\nvalue = [5, 0]"] ;
271 -> 272 ;
273 [label="total day calls <= 97.5\ngini = 0.444\nsamples = 3\nvalue = [1, 2]"] ;
271 -> 273 ;
274 [label="gini = 0.0\nsamples = 1\nvalue = [1, 0]"] ;
273 -> 274 ;
275 [label="gini = 0.0\nsamples = 2\nvalue = [0, 2]"] ;
273 -> 275 ;
276 [label="total day charge <= 30.64\ngini = 0.031\nsamples = 64\nvalue = [63, 1]"] ;
270 -> 276 ;
277 [label="total night minutes <= 150.65\ngini = 0.245\nsamples = 7\nvalue = [6, 1]"] ;
276 -> 277 ;
278 [label="gini = 0.0\nsamples = 1\nvalue = [0, 1]"] ;
277 -> 278 ;
279 [label="gini = 0.0\nsamples = 6\nvalue = [6, 0]"] ;
277 -> 279 ;
280 [label="gini = 0.0\nsamples = 57\nvalue = [57, 0]"] ;
276 -> 280 ;
281 [label="total eve calls <= 117.0\ngini = 0.5\nsamples = 2\nvalue = [1, 1]"] ;
269 -> 281 ;
282 [label="gini = 0.0\nsamples = 1\nvalue = [0, 1]"] ;
281 -> 282 ;
283 [label="gini = 0.0\nsamples = 1\nvalue = [1, 0]"] ;
281 -> 283 ;
284 [label="gini = 0.0\nsamples = 1\nvalue = [0, 1]"] ;
268 -> 284 ;
285 [label="gini = 0.0\nsamples = 2\nvalue = [0, 2]"] ;
267 -> 285 ;
286 [label="number vmail messages <= 9.5\ngini = 0.493\nsamples = 156\nvalue = [69, 87]"] ;
0 -> 286 [labeldistance=2.5, labelangle=-45, headlabel="False"] ;
287 [label="total eve charge <= 15.98\ngini = 0.392\nsamples = 112\nvalue = [30, 82]"] ;
286 -> 287 ;
288 [label="total day charge <= 52.905\ngini = 0.476\nsamples = 41\nvalue = [25, 16]"] ;
287 -> 288 ;
289 [label="total night charge <= 9.57\ngini = 0.408\nsamples = 35\nvalue = [25, 10]"] ;
288 -> 289 ;
290 [label="total intl charge <= 3.78\ngini = 0.095\nsamples = 20\nvalue = [19, 1]"] ;
289 -> 290 ;
291 [label="gini = 0.0\nsamples = 19\nvalue = [19, 0]"] ;
290 -> 291 ;
292 [label="gini = 0.0\nsamples = 1\nvalue = [0, 1]"] ;
290 -> 292 ;
293 [label="total eve minutes <= 135.55\ngini = 0.48\nsamples = 15\nvalue = [6, 9]"] ;
289 -> 293 ;
294 [label="gini = 0.0\nsamples = 5\nvalue = [5, 0]"] ;
293 -> 294 ;
295 [label="international plan <= 0.5\ngini = 0.18\nsamples = 10\nvalue = [1, 9]"] ;
293 -> 295 ;
296 [label="gini = 0.0\nsamples = 8\nvalue = [0, 8]"] ;
295 -> 296 ;
297 [label="total eve calls <= 111.0\ngini = 0.5\nsamples = 2\nvalue = [1, 1]"] ;
295 -> 297 ;
298 [label="gini = 0.0\nsamples = 1\nvalue = [1, 0]"] ;
297 -> 298 ;
299 [label="gini = 0.0\nsamples = 1\nvalue = [0, 1]"] ;
297 -> 299 ;
300 [label="gini = 0.0\nsamples = 6\nvalue = [0, 6]"] ;
288 -> 300 ;
301 [label="total night charge <= 5.155\ngini = 0.131\nsamples = 71\nvalue = [5, 66]"] ;
287 -> 301 ;
302 [label="gini = 0.0\nsamples = 3\nvalue = [3, 0]"] ;
301 -> 302 ;
303 [label="total night charge <= 5.74\ngini = 0.057\nsamples = 68\nvalue = [2, 66]"] ;
301 -> 303 ;
304 [label="total eve charge <= 18.9\ngini = 0.444\nsamples = 3\nvalue = [1, 2]"] ;
303 -> 304 ;
305 [label="gini = 0.0\nsamples = 1\nvalue = [1, 0]"] ;
304 -> 305 ;
306 [label="gini = 0.0\nsamples = 2\nvalue = [0, 2]"] ;
304 -> 306 ;
307 [label="total night calls <= 67.5\ngini = 0.03\nsamples = 65\nvalue = [1, 64]"] ;
303 -> 307 ;
308 [label="total day charge <= 46.375\ngini = 0.32\nsamples = 5\nvalue = [1, 4]"] ;
307 -> 308 ;
309 [label="gini = 0.0\nsamples = 4\nvalue = [0, 4]"] ;
308 -> 309 ;
310 [label="gini = 0.0\nsamples = 1\nvalue = [1, 0]"] ;
308 -> 310 ;
311 [label="gini = 0.0\nsamples = 60\nvalue = [0, 60]"] ;
307 -> 311 ;
312 [label="international plan <= 0.5\ngini = 0.201\nsamples = 44\nvalue = [39, 5]"] ;
286 -> 312 ;
313 [label="gini = 0.0\nsamples = 36\nvalue = [36, 0]"] ;
312 -> 313 ;
314 [label="total day minutes <= 276.3\ngini = 0.469\nsamples = 8\nvalue = [3, 5]"] ;
312 -> 314 ;
315 [label="gini = 0.0\nsamples = 4\nvalue = [0, 4]"] ;
314 -> 315 ;
316 [label="total night minutes <= 241.85\ngini = 0.375\nsamples = 4\nvalue = [3, 1]"] ;
314 -> 316 ;
317 [label="gini = 0.0\nsamples = 3\nvalue = [3, 0]"] ;
316 -> 317 ;
318 [label="gini = 0.0\nsamples = 1\nvalue = [0, 1]"] ;
316 -> 318 ;
}